Network Architecture:
Dense 4 32
Dense 32 16
Dense 16 8
Dense 8 1
Weights:
Dense 32 4
-0.145879 -0.218206 -0.316719 0.771585 
0.0252573 1.74772 1.84395 -0.504189 
-1.96677 -1.32059 0.0265944 -0.383073 
1.03774 -0.327782 1.07884 3.41521 
-1.18226 -1.58514 0.0976631 0.914909 
0.397225 -0.0994535 -0.32224 -0.0171917 
3.3143 3.64425 2.35871 1.72466 
0.454088 0.255007 -1.37264 1.72542 
-0.104754 0.0780281 -0.0076799 0.763551 
0.578762 0.674742 -3.43816 3.53278 
-0.174557 -1.16971 0.685811 0.161616 
4.21637 4.41136 3.64334 -1.3181 
-1.35445 -2.01677 -0.200701 0.430596 
1.10708 2.05647 0.975404 -2.95379 
6.03598 6.00592 4.69544 9.74287 
-1.85277 -0.783831 -0.0508035 2.33861 
-0.559161 -0.783672 -0.70039 2.45504 
0.731026 1.12319 1.74566 2.29583 
-0.0057129 0.0547444 -1.25339 1.51437 
-1.30528 -1.94295 -0.259611 0.645853 
1.12983 -0.729944 0.434496 1.29851 
5.41414 5.26752 4.15241 -2.30494 
2.91576 2.69614 2.40541 3.08646 
15.4861 16.0775 12.6904 -2.01231 
-0.439899 0.646613 0.187181 0.239072 
-0.150867 0.805109 -1.59583 2.17382 
0.044831 -1.06524 -4.48747 2.97186 
0.0728512 0.00739729 -0.0505295 -0.797507 
3.06226 3.01584 2.46573 1.46446 
2.66512 1.56539 1.31905 4.75046 
-0.465144 0.367294 0.235034 0.157991 
-0.828562 -1.51894 -5.18072 1.9966 
Dense 16 32
-0.204356 -0.16387 -0.440088 0.183428 0.0753116 -0.212843 -0.986817 -0.365308 -0.302485 -0.258997 -0.516558 0.0140983 -0.583061 -0.160345 -0.421785 -0.419777 -0.278258 -0.22373 -0.380667 -0.0684334 -0.0682909 -0.00935547 -0.419591 -0.877775 -0.526026 -0.323984 -0.378916 -0.706539 -0.0991195 -0.153319 -0.214581 -0.249655 
0.218031 -0.534543 -0.335573 0.189315 0.227175 -0.14429 -0.44054 0.0662071 0.0635357 0.099517 0.0544525 0.0529808 -0.499507 -0.038449 -0.396916 -0.94555 -0.865808 -0.244144 -0.323308 -0.501192 0.291389 0.433652 0.0309944 -0.541055 0.0707021 0.266933 -0.0649682 0.117942 -0.121168 -0.0720526 0.276019 0.0289964 
0.180938 -0.323997 0.0553074 -0.441704 -0.477134 -0.223533 -1.05166 -0.366518 0.145361 -0.478828 -0.274267 -0.726022 -0.153793 -0.38057 -1.35032 -0.487626 -0.412243 -0.302938 -0.181606 -0.0549442 -0.431374 -0.755111 -0.637116 -1.78717 0.0836361 0.11469 -0.308241 -0.194512 -0.62742 -0.708645 -0.0963972 -0.119144 
-0.169519 -0.492288 -0.491029 0.369044 -0.259703 -0.0324097 0.118415 -0.244202 0.108092 -0.176201 0.0538777 0.0646591 -0.323275 0.0974201 0.283503 0.302614 -0.510461 -0.135323 -0.15163 -0.298967 -0.345301 0.0447581 -0.234822 -0.159924 -0.168897 -0.380437 -0.184663 -0.538448 0.304102 -0.218868 -0.312742 -0.67612 
0.0414498 -0.365001 0.198673 -0.489621 0.297099 -0.39281 -0.775463 0.267429 0.0160098 0.10451 -0.214371 -0.900992 -0.00886446 -0.192093 -1.22491 0.00690703 -0.782396 -0.676247 -0.485933 -0.182746 -0.12173 -0.636502 -0.263325 -2.64817 -0.288911 -0.107726 -0.878739 -0.167334 -0.12489 -0.518231 -0.220464 -0.738357 
-0.101731 0.221235 -0.191594 0.195055 0.0780575 -0.314766 -0.181107 0.28708 -0.190092 0.322004 0.00921792 -0.190488 0.353162 0.359642 -0.0818935 -0.506126 -0.429503 -0.108046 0.112973 -0.0941283 -0.355668 0.259354 -0.0348472 -0.274775 -0.00709436 -0.255975 -0.577262 0.199378 0.0195102 -0.380119 -0.00641215 -0.597582 
0.302452 -0.488507 -3.4023 -0.194249 -2.83606 0.349986 0.471538 0.591488 -0.899451 1.54265 -0.597591 0.194398 -3.487 1.95233 0.210796 -3.80053 -2.52514 -0.264757 -0.357029 -4.29779 0.434414 1.08461 -0.78372 1.01838 -0.196364 1.02635 4.00065 -0.570764 -0.973349 -0.263803 -0.646809 0.144455 
-0.0738364 -0.396046 0.170922 -0.258027 -0.261084 -0.260227 -0.653074 -0.32915 -0.105872 0.0463429 -0.313601 -0.315211 -0.481236 -0.0143269 -0.547245 -0.400433 -0.649143 -0.757131 -0.179434 -0.593986 -0.40695 -0.15101 -0.146038 -2.07019 0.00427053 -0.365043 -0.487289 -0.0716696 -0.779511 0.070611 -0.183881 -0.670532 
-0.351972 -0.10354 -0.395321 0.219129 0.0157767 -0.392693 -0.317885 0.309078 -0.380966 0.0858699 0.212096 -0.331991 0.131249 0.299072 -0.422504 -0.341519 -0.218703 -0.398467 0.260097 -0.254426 0.283066 0.308132 -0.36839 -0.293689 0.253987 -0.449332 -0.0512623 -0.424411 0.244252 0.322183 0.0264428 -0.20556 
0.0830665 0.229783 -0.463226 -0.377451 -0.373773 -0.116172 -0.542839 -0.125192 -0.040097 0.0043984 0.197925 -0.78574 -0.126778 -0.400906 -0.667296 -0.179977 -0.171549 -0.238676 -0.545354 -0.0375633 -0.0233416 -0.8525 -0.211876 -2.02449 -0.534157 -0.281735 -1.14811 -0.512033 -0.21259 0.0340346 -0.388283 -0.232005 
0.169678 0.230394 0.366672 0.157272 -0.205516 0.0534559 -0.169822 -0.121003 -0.357225 0.0680769 0.017993 -0.476722 0.310248 -0.162574 -0.448487 0.3047 0.537614 -0.551312 -0.294508 -0.101952 0.215192 -0.0652992 0.131709 -0.573953 0.026693 0.0997009 -0.491934 -0.353701 -0.236183 -0.28203 0.167416 -0.0412737 
0.0410109 -0.409392 0.661187 0.614519 0.772784 0.216507 -0.73953 0.562588 0.41858 0.129795 0.295534 -0.388711 0.62327 0.422957 -0.10607 0.931386 0.109814 -0.422461 0.500717 0.528888 -0.338342 -0.25979 -0.0323628 -1.1644 -0.484745 0.169398 -0.66081 0.125921 -0.754013 -0.0849654 0.159696 -1.05892 
-0.309648 -0.30607 0.254489 -0.192792 0.063974 -0.340433 0.0209695 -0.00192895 -0.0121221 -0.108499 0.199207 -0.0175935 -0.315934 0.265563 -0.352031 -0.435204 -0.168647 -0.398346 -0.351574 -0.0562682 0.16294 -0.506099 0.0320948 -0.843126 0.268034 -0.539757 -0.520748 0.195717 -0.603952 -0.393397 0.102578 -0.199526 
-0.597911 -0.464275 -0.208739 -0.326979 -0.219777 -0.294903 -0.133348 0.366977 -0.431353 -0.216053 -0.395285 -0.117449 -0.0496675 0.183763 -0.206905 -0.576671 -0.525632 -0.729491 -0.413736 -0.551364 0.0141283 0.160014 -0.343165 -0.658974 -0.1804 0.314587 -0.344258 0.109415 -0.556439 -0.485428 -0.200352 -0.370964 
-0.0188041 0.210789 -0.0884179 -0.393498 -0.0467381 0.17021 -0.91957 -0.470198 0.159331 0.151984 0.26424 -0.198774 -0.45732 -0.26553 -0.543854 -0.173989 -0.700257 -0.56965 0.0723366 -0.0869022 -0.00742631 -0.768565 -0.67857 -1.91054 0.083362 0.0723902 -0.533623 -0.596615 -0.105376 0.0998185 0.0684078 -0.196402 
-0.00633435 0.430581 -0.570895 -0.305619 -0.318671 0.0326236 -0.161941 0.103199 -0.335491 0.186729 -0.32146 0.267903 -0.0498548 -0.274746 0.630771 -0.634076 0.347704 0.602163 0.167227 -0.42851 0.0427185 0.182844 -0.0771809 -0.796545 0.21335 0.468045 -0.337066 -0.0711549 0.00599078 0.203903 0.0936852 0.0505125 
Dense 8 16
0.505119 0.0191768 -0.312713 -0.665723 -0.500822 -0.383614 0.92551 -0.426628 0.0165526 -0.483192 -0.52516 -0.333246 0.394229 0.274552 -0.0161263 0.550932 
0.00866038 -0.305321 -0.431673 0.0539376 -0.182288 0.344506 -0.0620454 -0.514942 -0.15082 -0.409695 -0.0114826 -0.243787 0.278496 -0.0247658 -0.175469 -0.0117209 
-0.316045 0.267403 0.202683 -0.774678 -0.137624 0.167261 -0.431897 -0.0542502 -0.338107 0.161937 -0.486207 -0.611413 -0.135692 0.125016 -0.0429936 0.413173 
-0.146256 0.0372198 -0.105922 0.0786596 -0.18591 0.541327 -0.0964222 0.287959 -0.374357 0.153243 0.104428 -0.21919 -0.40784 -0.553464 -0.488368 0.0314701 
0.172677 0.389628 0.0516729 -0.819873 -0.28606 -0.447881 -0.0875997 0.139073 0.215024 -0.510806 -0.109326 -1.20822 -0.132953 -0.129779 -0.34328 -0.289918 
-0.432093 -0.00102505 -0.285288 -0.496886 0.212626 -0.249718 -0.857293 -0.539102 -0.162984 0.294764 -0.346354 0.363612 0.40649 -0.134397 -0.178642 0.00412105 
0.391764 0.0829999 0.408635 0.138426 0.474889 0.00734912 -0.363871 0.433713 0.0555878 0.368793 0.0700348 0.0515836 0.215533 0.251516 0.350262 -0.0121962 
-0.217083 0.329309 0.176668 -0.438771 0.122257 -0.168167 -0.0876893 -0.545961 0.411406 -0.0212293 -0.359561 -1.07096 0.0471994 0.402662 0.0136588 -0.347291 
Dense 1 8
1.03727 0.0283466 0.496009 0.0922161 0.43034 -0.160065 0.728232 0.247086 
