Network Architecture:
Dense 4 32
Dense 32 16
Dense 16 8
Dense 8 1
Normalization:
Means 128.768 125.894 127.286 3.21191e+07 
Stddevs 31.8604 31.3199 31.6138 1.35444e+07 
Weights:
Dense 32 4
0.49146 0.776421 0.939022 -0.0367378 -17.2698 
0.244683 -0.747348 0.500186 -0.153502 -2.43828 
-0.292341 -1.13362 0.108868 -0.61242 -4.41033 
1.544 0.340317 0.585695 -0.0374471 -14.9293 
0.938355 0.114058 -0.0711482 0.194724 -7.8942 
-0.0764582 0.933126 -0.261384 0.0297028 -13.6344 
-0.935923 -0.493535 0.0129125 0.167217 -12.5719 
-0.131288 0.0605111 0.738499 -1.09894 -17.268 
0.582212 0.163713 -0.34337 -0.293623 -3.33383 
-1.62009 -1.49453 -1.72933 -0.782709 -16.3467 
-0.973193 -0.304461 -0.910611 -2.40572 -16.3962 
1.66665 0.664708 -0.275004 -0.157241 -16.4032 
-1.96555 -1.26575 -1.15449 -0.9774 -17.6932 
2.15098 0.53125 0.616755 -0.2095 -16.8099 
-0.210746 0.3294 -0.962374 -0.136942 -8.58714 
-0.499459 0.925419 -0.157193 -0.356965 -13.4712 
-0.890255 0.59084 -0.246695 0.104924 -13.8469 
-1.16989 -3.06614 -1.35138 -2.12722 -16.613 
1.21531 0.223468 2.13789 -0.343431 -16.3905 
1.05291 -0.409201 0.418027 -0.538639 -16.2925 
0.432237 0.382958 1.37579 -0.280378 -16.6215 
1.15486 1.39877 0.0392616 -0.3724 -15.7997 
0.454069 0.526455 -0.493736 -0.0406998 -9.67038 
-1.77307 -1.27035 -1.89738 -1.75118 -16.6476 
-1.13398 -1.68385 -1.04517 0.925302 -15.1255 
-1.26417 -1.71561 -1.43565 -0.176944 -17.3474 
-0.91785 -1.92525 -1.2777 0.230396 -14.347 
0.596656 -1.01388 -0.973772 -0.912206 -13.9882 
1.17457 0.14215 0.626187 -0.235221 -13.5693 
-0.0364492 1.41489 0.377962 0.139251 -14.8781 
2.3662 1.5641 2.26972 -0.0542541 -15.1945 
-0.109256 -1.35828 0.503109 0.381031 -14.359 
Dense 16 32
-0.457344 0.264188 0.0934221 -7.27475 0.0392882 -7.76485 -1.44138 -4.70438 -0.378275 -17.9949 -8.12755 -1.10719 -12.7769 -3.03275 -0.106225 -8.10471 -0.77997 -19.116 -5.20929 -1.78218 -0.690338 -2.44183 -0.316047 -20.2877 -24.7529 -15.0586 -25.7551 -8.63521 -1.01588 -2.79319 -15.7143 -1.38484 -18.8248 
-0.255336 0.460243 0.376693 -0.621113 -0.319127 0.792216 -0.117185 -1.22637 0.083786 -1.95526 -0.146459 0.197339 -0.762529 -0.130418 0.124382 1.55595 0.00299912 -1.69357 -0.587555 0.204246 -0.276167 -0.0470967 -0.224608 -2.80848 -3.10454 -1.66426 -3.40142 0.380691 0.135916 0.629579 -4.11737 0.375816 -3.00381 
-0.516118 0.0264361 0.421733 -1.65913 -0.360335 0.296666 -0.0845394 -1.01558 0.229102 -1.94787 -0.539586 -0.392189 -0.452013 0.141616 -0.172941 0.544022 -0.0790715 -2.01225 -1.19916 -0.219322 -0.385074 0.328344 0.148735 -2.60703 -2.70636 -1.9252 -3.24689 -0.262634 -0.511681 0.700759 -3.99734 0.956531 -3.13246 
-0.718723 -0.141218 0.245104 -5.42183 -0.193869 -5.75566 -0.436057 -4.0598 -0.417939 -16.0009 -7.49644 -0.595441 -12.3652 -2.41499 -0.212897 -6.05982 -0.0434603 -16.6592 -3.47978 -1.67351 -0.632706 -0.308722 -0.335185 -18.8838 -22.7834 -14.0592 -24.0803 -8.53867 -0.778741 -0.868034 -0.171887 -0.59157 -3.50546 
-1.03917 0.150807 -0.26226 -7.51428 -0.346154 -7.24386 -1.3924 -4.3211 0.220352 -15.9019 -7.83364 -1.13253 -11.0779 -3.14865 -0.428713 -8.58046 -0.841455 -17.243 -5.89326 -1.87599 -0.621939 -1.69023 -0.0988894 -18.236 -22.1556 -13.9656 -23.5881 -8.42801 0.196398 -2.40329 -15.9194 -1.28835 -18.5751 
-0.691582 0.120159 -0.492568 -7.81578 -0.168716 -7.84051 -1.09325 -4.79377 0.41734 -19.303 -8.82777 -0.772568 -13.5063 -2.57798 -0.621523 -8.26077 -0.853077 -19.8647 -5.90724 -1.84667 -1.10827 -2.96163 -0.486851 -21.2012 -26.3268 -15.5419 -27.8743 -8.97173 -0.981741 -2.79371 -15.7039 -1.32665 -18.9026 
-0.732961 0.337692 -0.343847 -3.74876 0.00755892 -3.74216 -0.683526 -3.13286 -0.0921824 -8.45735 -3.5497 -0.878224 -6.28219 -1.04551 -0.104549 -3.8371 -0.818727 -8.46911 -3.38047 -0.840931 -0.610491 -2.03837 0.0999088 -9.56365 -11.9473 -7.16054 -13.2593 -4.33793 0.0185143 -1.37426 -8.30316 -0.957808 -9.69585 
-0.693828 -0.0432964 -0.562272 -5.57765 -0.516742 -6.612 -1.18547 -4.4085 0.137837 -16.8902 -7.83722 -1.42694 -12.7635 -2.42454 0.295971 -6.72881 0.14189 -17.904 -3.2451 -1.90139 -0.992611 -0.594146 0.0327095 -19.7329 -23.7497 -15.2736 -25.4021 -8.96535 -0.791035 -1.33885 -1.48229 -1.16024 -4.18641 
-0.256414 0.0333595 0.369815 -1.97909 -0.239144 -1.05877 -0.286123 -1.79313 -0.16771 -5.11359 -2.39276 -0.10261 -3.28657 -0.399428 -0.0241443 -1.79165 -0.589054 -4.00949 -1.66699 -0.409346 -0.408201 -2.33849 -0.0805206 -4.74553 -7.34138 -4.51762 -8.66977 -1.98176 -0.188492 -0.83209 -4.42695 0.000688738 -5.22487 
-0.0590304 0.186705 0.325853 1.94065 0.0148911 0.707201 0.749044 1.14228 0.114191 2.11908 0.611801 -0.136754 1.70944 0.968085 -0.193696 0.902453 -0.0715705 1.54325 1.32494 -0.136166 -0.0167054 0.279964 0.405684 1.65739 1.92938 1.93792 2.32403 0.958752 0.415034 0.591433 4.36063 0.721865 3.82962 
-0.175806 0.000490667 -0.148538 -3.90492 0.186311 -3.54667 -0.793762 -2.76646 -0.156667 -11.5028 -5.0484 -0.284034 -8.08356 -1.54563 -0.350778 -3.74075 -0.877943 -10.8205 -3.54091 -1.3884 -0.613919 -2.90968 -0.402023 -12.3835 -15.337 -10.087 -17.0708 -4.55849 -0.660656 -0.981895 -8.38345 -1.11974 -10.1958 
-0.947677 0.0418925 -0.315806 -7.36723 -0.381674 -7.76913 -1.24592 -5.26141 0.161377 -16.2932 -7.92427 -1.44523 -11.4005 -3.28113 -0.596033 -7.92785 -0.362717 -17.8214 -5.3462 -1.65999 -1.20014 -2.1547 -0.0364006 -18.4337 -22.1894 -13.2367 -24.0307 -8.84012 -0.436493 -2.39613 -15.7069 -1.61587 -18.7583 
-0.221451 -0.212736 -0.169066 1.54158 -0.288103 0.710068 0.503687 1.75031 -0.0558647 3.1659 2.21613 -0.163333 1.83824 0.572486 0.27338 1.52091 0.292888 2.99308 1.62643 0.103565 -0.0959078 0.977529 -0.428626 3.31248 2.48707 2.74122 4.10483 1.31114 -0.248278 0.0961303 3.52283 0.451688 4.17957 
-0.589931 -0.186306 0.0698855 -0.194326 0.341865 1.05453 -0.110429 -1.36192 -0.118231 -3.30852 -0.800049 -0.305617 -1.46851 -0.214875 0.337198 1.40724 -0.0937808 -2.69975 -1.04778 0.0902567 0.0895319 -0.502856 0.312263 -3.31302 -4.0701 -2.61334 -5.17803 1.462 0.0958402 0.750233 -4.15092 0.42012 -3.60422 
-0.605215 -0.176606 0.0829923 -7.01377 -0.457684 -7.25637 -1.98915 -4.41006 -0.0364394 -16.907 -7.44099 -1.02623 -12.3645 -2.67946 -0.613169 -8.39034 -1.28433 -18.0157 -5.64766 -1.99996 -0.220235 -1.99259 0.0485728 -18.954 -24.3419 -15.0721 -25.8936 -9.00065 -0.1511 -2.79239 -15.156 -1.46511 -18.7556 
-0.480817 -0.382152 -0.313662 -1.67495 -0.186294 -1.60476 -0.890879 -1.35001 -0.43068 -3.1044 -1.13378 -0.482169 -2.10963 -1.09348 -0.33208 -2.59918 -0.448516 -2.85238 -1.38007 -0.469299 0.170484 -0.513077 -0.466319 -3.44934 -4.87498 -3.27124 -5.23563 -1.98033 0.48794 -0.777513 -4.88563 -0.78274 -6.32165 
Dense 8 16
11.6947 28.5622 23.9406 3.79578 22.0003 9.10635 -0.102681 4.92891 0.931335 -17.1122 0.329471 16.3912 -4.68453 17.8295 19.4232 -0.358056 4.42312 
57.6818 28.4034 21.9806 166.921 187.104 34.4576 0.342478 163.439 -0.350292 191.531 -0.404347 64.1297 449.258 13.1428 117.889 1.93809 20.7828 
-12.871 -40.7845 -38.0423 -28.2522 -49.1205 -8.42196 -0.310237 -30.6365 -0.759244 16.9105 -0.00143736 -15.8276 -0.5181 -18.3378 -28.2885 -2.88225 -5.31221 
-9.32579 -29.9466 -26.0124 -18.7723 -24.817 -5.19176 -0.0253619 -18.6157 0.239943 16.751 -0.399723 -13.2447 0.252647 -16.2968 -14.9385 -0.947408 -4.64934 
-14.9547 -11.3321 -6.53706 -26.5342 -45.2891 -3.73109 -0.472934 -24.2482 -0.357354 16.6615 0.247544 -11.7462 -0.827984 -5.57731 -29.5062 0.265191 -4.90501 
-13.5922 -41.3745 -39.2988 -27.6375 -52.6262 -8.34769 0.481464 -29.8234 -0.320919 17.1811 -0.241737 -16.4761 -1.43074 -17.8173 -30.4615 -3.64756 -4.70578 
-9.16368 9.37486 12.8213 -21.99 -10.7534 -0.109272 -0.287546 -16.2367 0.564754 17.7359 -0.0791094 -7.75803 -2.70742 5.59636 -13.7925 2.08181 -2.51509 
-16.912 -40.8203 -38.8661 -24.4597 -65.9935 -10.614 0.0169593 -28.4443 -0.137424 17.1028 -0.125998 -17.5722 -2.56729 -16.0172 -37.4369 -3.49114 -5.43395 
Dense 1 8
-1744.64 -163.366 1315.16 1358.54 1359.59 1281.26 1796.61 1266.98 119.288 
